{"id":"34331f3e-9a64-4590-8d74-0bd78262b2d7","duration":27.964,"profile_title":"Gagné/Adaptive Shot 92C vME 7 bar","user_id":"8cb9222e-b25c-4d19-b94f-f2de5a920baa","drink_tds":"0","drink_ey":"0","espresso_enjoyment":0,"bean_weight":"20.0","drink_weight":"25.7","grinder_model":null,"grinder_setting":"1.0","bean_brand":null,"bean_type":null,"roast_date":null,"espresso_notes":null,"roast_level":null,"bean_notes":null,"barista":null,"timeframe":["0.0","0.007","0.216","0.418","0.639","0.845","1.023","1.248","1.444","1.678","1.881","2.058","2.283","2.508","2.688","2.916","3.11","3.319","3.543","3.733","3.962","4.195","4.353","4.578","4.803","4.992","5.237","5.388","5.615","5.838","6.025","6.252","6.477","6.648","6.873","7.053","7.285","7.506","7.682","7.909","8.133","8.358","8.548","8.773","8.943","9.168","9.361","9.573","9.798","9.983","10.228","10.449","10.609","10.833","11.017","11.252","11.463","11.654","11.882","12.114","12.276","12.5","12.729","12.99","13.16","13.308","13.533","13.758","13.976","14.163","14.434","14.576","14.799","14.973","15.198","15.473","15.603","15.833","16.076","16.233","16.458","16.659","16.863","17.092","17.268","17.494","17.718","17.898","18.124","18.352","18.529","18.756","18.989","19.158","19.384","19.563","19.792","20.025","20.197","20.434","20.659","20.824","21.05","21.233","21.46","21.703","21.86","22.089","22.308","22.491","22.713","22.903","23.118","23.39","23.523","23.761","23.984","24.16","24.4","24.558","24.793","25.021","25.208","25.429","25.638","25.84","26.043","26.268","26.448","26.703","26.853","27.088","27.305","27.485","27.741","27.964"],"data":{"espresso_flow":["0.0","3.87","3.74","3.68","3.64","3.63","3.56","3.55","3.55","3.56","3.55","3.52","3.56","3.52","3.58","3.6","3.63","3.59","3.64","3.59","3.57","3.52","3.51","3.46","3.46","3.41","3.42","3.44","3.48","3.51","3.49","3.48","3.46","3.48","3.48","3.53","3.5","3.5","3.49","3.45","3.49","3.47","3.49","3.45","3.41","3.44","3.38","3.42","3.4","3.41","3.37","3.36","3.2","2.96","2.71","2.49","2.25","2.09","1.93","1.79","1.67","1.55","1.47","1.39","1.32","1.24","1.19","1.18","1.19","1.18","1.16","1.16","1.16","1.14","1.12","1.12","1.12","1.1","1.09","1.07","1.05","1.08","1.08","1.05","1.05","1.08","1.03","1.08","1.02","1.05","1.0","1.07","1.02","1.03","0.98","1.06","1.0","1.04","0.96","1.08","1.0","1.05","1.01","1.02","0.98","0.99","1.06","0.98","1.03","0.97","0.99","1.03","0.98","1.05","0.98","1.02","0.98","0.99","1.03","0.98","1.05","0.98","1.01","0.98","1.01","0.98","1.03","1.01","0.98","1.04","0.97","0.99","0.94","1.04","0.96","1.05"],"espresso_weight":["0.0","0.0","0.0","0.0","0.0","0.0","0.0","0.0","0.0","0.0","0.0","0.0","0.0","0.0","0.0","0.0","0.0","0.0","0.0","0.0","0.0","0.0","0.0","0.0","0.0","0.0","0.0","0.0","0.0","0.0","0.0","0.0","0.0","0.0","0.0","0.0","0.0","0.0","0.0","0.0","0.0","0.0","0.0","0.0","0.0","0.0","0.0","0.0","0.0","0.0","0.0","0.0","0.0","0.0","0.0","0.3","0.5","0.8","0.9","1.3","1.3","1.8","2.2","2.3","2.6","2.7","3.2","3.2","3.8","3.8","4.3","4.4","4.9","5.0","5.5","6.1","6.3","6.6","7.3","7.5","7.9","8.1","8.8","8.9","9.3","9.6","10.2","10.4","10.7","11.2","11.6","12.0","12.5","12.5","13.0","13.2","13.7","14.1","14.3","14.7","15.0","15.3","15.6","15.9","16.1","16.5","16.5","17.0","17.3","17.7","18.1","18.3","18.3","18.9","19.1","19.3","19.8","19.9","20.2","20.2","20.7","21.0","21.2","21.4","21.7","22.0","22.3","22.6","22.8","23.1","23.3","23.7","24.0","24.2","24.5","24.8"],"espresso_pressure":["0.0","1.03","0.93","0.93","1.04","0.99","0.96","1.02","0.97","0.96","1.01","1.0","0.97","1.02","0.98","0.92","0.84","0.78","0.79","0.78","0.75","0.8","0.81","0.84","0.87","0.91","0.95","1.03","1.05","1.05","1.11","1.18","1.24","1.32","1.35","1.36","1.42","1.51","1.57","1.69","1.74","1.79","1.86","1.99","2.13","2.27","2.39","2.58","2.75","3.01","3.38","3.9","4.5","4.86","5.18","5.46","5.79","5.99","6.18","6.38","6.53","6.67","6.73","6.8","6.82","6.9","6.95","6.91","6.87","6.92","6.95","6.85","6.85","6.9","6.79","6.64","6.44","6.24","6.0","5.76","5.53","5.22","4.98","4.81","4.58","4.4","4.22","4.0","3.84","3.59","3.46","3.34","3.24","3.14","3.06","2.94","2.86","2.75","2.69","2.61","2.7","2.62","2.56","2.46","2.49","2.44","2.43","2.39","2.38","2.43","2.33","2.34","2.33","2.31","2.32","2.25","2.31","2.26","2.25","2.23","2.16","2.2","2.18","2.21","2.19","2.22","2.22","2.23","2.18","2.16","2.17","2.13","2.26","2.21","2.2","2.15"],"espresso_flow_goal":["-1.0","3.5","3.5","3.5","3.5","3.5","3.5","3.5","3.5","3.5","3.5","3.5","3.5","3.5","3.5","3.5","3.5","3.5","3.5","3.5","3.5","3.5","3.5","3.5","3.5","3.5","3.5","3.5","3.5","3.5","3.5","3.5","3.5","3.5","3.5","3.5","3.5","3.5","3.5","3.5","3.5","3.5","3.5","3.5","3.5","3.5","3.5","3.5","3.5","3.5","-1.0","-1.0","-1.0","-1.0","-1.0","-1.0","-1.0","-1.0","-1.0","-1.0","-1.0","-1.0","-1.0","-1.0","-1.0","-1.0","-1.0","-1.0","-1.0","-1.0","1.1875","1.1875","1.1875","1.125","1.125","1.0625","1.0625","1.0625","1.0625","1.0625","1.0625","1.0625","1.0625","1.0625","1.0625","1.0625","1.0625","1.0625","1.0625","1.0625","1.0625","1.0625","1.0625","1.0625","1.0625","1.0625","1.0625","1.0625","1.0625","1.0625","1.0625","1.0625","1.0625","1.0625","1.0625","1.0625","1.0625","1.0625","1.0625","1.0625","1.0625","1.0625","1.0625","1.0625","1.0625","1.0625","1.0625","1.0625","1.0625","1.0625","1.0625","1.0625","1.0625","1.0625","1.0625","1.0625","1.0625","1.0625","1.0625","1.0625","1.0625","1.0625","1.0625","1.0625","1.0625","1.0625"],"espresso_flow_weight":["0.0","0.0","0.0","0.0","0.0","0.0","0.0","0.0","0.0","0.0","0.0","0.0","0.0","0.0","0.0","0.0","0.0","0.0","0.0","0.0","0.0","0.0","0.0","0.0","0.0","0.0","0.0","0.0","0.0","0.0","0.0","0.0","0.0","0.0","0.0","0.0","0.0","0.0","0.0","0.0","0.0","0.0","0.0","0.0","0.0","0.0","0.0","0.0","0.0","0.0","0.0","0.0","0.0","0.0","0.0","0.27","0.45","0.73","0.82","1.18","0.91","1.18","1.27","1.09","1.18","1.27","1.27","1.09","1.64","1.36","1.45","1.27","1.54","1.36","1.54","1.64","1.82","1.55","1.73","1.82","1.82","1.82","2.09","2.09","2.0","1.91","2.09","1.82","1.73","2.0","1.82","2.09","1.91","1.64","1.64","1.45","1.54","1.64","1.64","1.73","1.64","1.64","1.54","1.64","1.45","1.45","1.45","1.54","1.54","1.54","1.45","1.64","1.27","1.45","1.45","1.36","1.36","1.45","1.27","1.18","1.45","1.27","1.27","1.18","1.36","1.18","1.36","1.27","1.36","1.27","1.45","1.36","1.36","1.27","1.27","1.36"],"espresso_state_change":["0.0","10000000.0","10000000.0","10000000.0","10000000.0","10000000.0","10000000.0","10000000.0","10000000.0","10000000.0","10000000.0","10000000.0","10000000.0","10000000.0","10000000.0","10000000.0","10000000.0","10000000.0","10000000.0","10000000.0","10000000.0","10000000.0","10000000.0","10000000.0","10000000.0","10000000.0","10000000.0","10000000.0","10000000.0","10000000.0","10000000.0","10000000.0","10000000.0","10000000.0","10000000.0","10000000.0","10000000.0","10000000.0","10000000.0","10000000.0","10000000.0","10000000.0","10000000.0","10000000.0","10000000.0","10000000.0","10000000.0","10000000.0","10000000.0","10000000.0","-10000000.0","-10000000.0","-10000000.0","-10000000.0","-10000000.0","-10000000.0","-10000000.0","-10000000.0","-10000000.0","-10000000.0","-10000000.0","-10000000.0","-10000000.0","-10000000.0","-10000000.0","-10000000.0","-10000000.0","-10000000.0","-10000000.0","-10000000.0","10000000.0","10000000.0","10000000.0","-10000000.0","-10000000.0","-10000000.0","-10000000.0","-10000000.0","-10000000.0","-10000000.0","-10000000.0","-10000000.0","-10000000.0","-10000000.0","-10000000.0","-10000000.0","-10000000.0","-10000000.0","-10000000.0","-10000000.0","-10000000.0","-10000000.0","-10000000.0","-10000000.0","-10000000.0","-10000000.0","-10000000.0","-10000000.0","-10000000.0","-10000000.0","-10000000.0","-10000000.0","-10000000.0","-10000000.0","-10000000.0","-10000000.0","-10000000.0","-10000000.0","-10000000.0","-10000000.0","-10000000.0","-10000000.0","-10000000.0","-10000000.0","-10000000.0","-10000000.0","-10000000.0","-10000000.0","-10000000.0","-10000000.0","-10000000.0","-10000000.0","-10000000.0","-10000000.0","-10000000.0","-10000000.0","-10000000.0","-10000000.0","-10000000.0","-10000000.0","-10000000.0","-10000000.0","-10000000.0","-10000000.0","-10000000.0","-10000000.0"],"espresso_pressure_goal":["-1.0","-1.0","-1.0","-1.0","-1.0","-1.0","-1.0","-1.0","-1.0","-1.0","-1.0","-1.0","-1.0","-1.0","-1.0","-1.0","-1.0","-1.0","-1.0","-1.0","-1.0","-1.0","-1.0","-1.0","-1.0","-1.0","-1.0","-1.0","-1.0","-1.0","-1.0","-1.0","-1.0","-1.0","-1.0","-1.0","-1.0","-1.0","-1.0","-1.0","-1.0","-1.0","-1.0","-1.0","-1.0","-1.0","-1.0","-1.0","-1.0","-1.0","4.375","5.25","5.875","6.25","6.5","6.6875","6.8125","6.875","6.9375","7.0","7.0","7.0","7.0","7.0","7.0","7.0","7.0","7.0","7.0","7.0","-1.0","-1.0","-1.0","-1.0","-1.0","-1.0","-1.0","-1.0","-1.0","-1.0","-1.0","-1.0","-1.0","-1.0","-1.0","-1.0","-1.0","-1.0","-1.0","-1.0","-1.0","-1.0","-1.0","-1.0","-1.0","-1.0","-1.0","-1.0","-1.0","-1.0","-1.0","-1.0","-1.0","-1.0","-1.0","-1.0","-1.0","-1.0","-1.0","-1.0","-1.0","-1.0","-1.0","-1.0","-1.0","-1.0","-1.0","-1.0","-1.0","-1.0","-1.0","-1.0","-1.0","-1.0","-1.0","-1.0","-1.0","-1.0","-1.0","-1.0","-1.0","-1.0","-1.0","-1.0","-1.0","-1.0"],"espresso_flow_weight_raw":["0.0","0.0","0.0","0.0","0.0","0.0","0.0","0.0","0.0","0.0","0.0","0.0","0.0","0.0","0.0","0.0","0.0","0.0","0.0","0.0","0.0","0.0","0.0","0.0","0.0","0.0","0.0","0.0","0.0","0.0","0.0","0.0","0.0","0.0","0.0","0.0","0.0","0.0","0.0","0.0","0.0","0.0","0.0","0.0","0.0","0.0","0.0","0.0","0.0","0.0","0.0","0.0","0.0","0.0","0.0","0.27","0.45","0.73","0.82","1.18","0.91","1.18","1.27","1.09","1.18","1.27","1.27","1.09","1.64","1.36","1.45","1.27","1.54","1.36","1.54","1.64","1.82","1.55","1.73","1.82","1.82","1.82","2.09","2.09","2.0","1.91","2.09","1.82","1.73","2.0","1.82","2.09","1.91","1.64","1.64","1.45","1.54","1.64","1.64","1.73","1.64","1.64","1.54","1.64","1.45","1.45","1.45","1.54","1.54","1.54","1.45","1.64","1.27","1.45","1.45","1.36","1.36","1.45","1.27","1.18","1.45","1.27","1.27","1.18","1.36","1.18","1.36","1.27","1.36","1.27","1.45","1.36","1.36","1.27","1.27","1.36"],"espresso_temperature_mix":["93.0","93.2","91.85","92.05","92.42","93.03","93.67","93.91","94.42","94.97","95.21","95.55","95.66","95.93","95.97","96.18","96.0","95.79","95.66","95.28","95.14","94.8","94.56","94.39","94.08","93.81","93.81","93.74","93.74","93.74","93.74","93.71","93.61","93.47","93.33","93.37","93.2","93.23","92.96","93.03","92.86","92.73","92.55","92.49","92.22","92.15","92.19","92.12","92.02","92.09","92.02","92.02","91.88","91.88","91.82","91.78","91.75","91.65","91.55","91.58","91.41","91.62","91.55","91.48","91.35","91.48","91.35","91.21","91.21","91.35","91.21","91.18","91.21","91.15","91.28","91.15","91.21","91.21","91.28","91.18","91.18","91.25","91.28","91.32","91.35","91.32","91.38","91.45","91.32","91.55","91.48","91.48","91.48","91.45","91.55","91.52","91.55","91.65","91.65","91.62","91.58","91.68","91.65","91.58","91.65","91.62","91.82","91.58","91.68","91.71","91.75","91.92","91.92","91.85","91.82","91.92","91.98","92.09","92.19","92.25","92.22","92.29","92.42","92.52","92.45","92.62","92.69","92.66","92.76","92.76","92.96","92.96","93.03","93.2","93.2","93.27"],"espresso_water_dispensed":["0.0","0.08060201009114584","0.1584625244140625","0.23518880208333337","0.3110809326171875","0.38672892252604174","0.4609222412109375","0.5348663330078125","0.6089223225911459","0.6831309000651041","0.7570241292317709","0.8304545084635416","0.904693603515625","0.9780985514322916","1.0527445475260417","1.1276702880859375","1.2032267252604167","1.2779795328776042","1.3537445068359375","1.428558349609375","1.503021240234375","1.5763397216796875","1.649566650390625","1.7217356363932295","1.7938283284505212","1.8649190266927087","1.9362691243489587","2.0079243977864585","2.0804036458333335","2.153539021809896","2.226145426432292","2.298746744791667","2.370859781901042","2.4433542887369795","2.5159250895182295","2.589406331380209","2.6622263590494795","2.7351938883463545","2.807952880859375","2.879913330078125","2.952555338541667","3.024759928385417","3.097412109375","3.169352213541667","3.2404327392578125","3.31207275390625","3.382497151692709","3.4538319905598964","3.524744669596355","3.595723470052084","3.665918986002605","3.735982259114584","3.8026784261067714","3.864278157552084","3.9206949869791674","3.972646077473959","4.019597371419271","4.06304931640625","4.1032358805338545","4.1404876708984375","4.1751861572265625","4.2075754801432295","4.2381744384765625","4.267049153645834","4.294606526692709","4.320393880208334","4.3452402750651045","4.3697458902994795","4.394439697265626","4.419113159179688","4.443333943684897","4.46739705403646","4.491643269856772","4.515350341796876","4.538742065429688","4.5620371500651045","4.585337320963542","4.608306884765626","4.631001790364585","4.653391520182292","4.6751658121744795","4.69762166341146","4.720031738281251","4.741861979166667","4.763656616210938","4.786224365234376","4.807749430338543","4.830240885416668","4.851547241210938","4.873499552408855","4.894292195638022","4.916631062825522","4.93792215983073","4.959396362304688","4.979715983072918","5.001871744791668","5.022669474283855","5.044326782226563","5.064397176106772","5.08684794108073","5.107701619466147","5.12957255045573","5.150583902994793","5.171905517578126","5.192352294921876","5.212997436523438","5.23504130045573","5.255533854166668","5.27709452311198","5.297353108723959","5.317967732747396","5.339335123697918","5.359786987304688","5.381617228190105","5.401947021484376","5.423243204752605","5.443557739257813","5.464096069335938","5.485555013020835","5.506072998046876","5.527938842773438","5.548400878906251","5.569529215494793","5.589970906575521","5.610982259114584","5.63140869140625","5.652933756510418","5.6739349365234375","5.694315592447918","5.716069539388021","5.736236572265625","5.756815592447918","5.7763519287109375","5.798121134440105","5.818044026692709","5.839869181315105"],"espresso_temperature_goal":["93.0","93.0","93.0","93.0","93.0","93.0","93.0","93.0","93.0","93.0","93.0","93.0","93.0","93.0","93.0","93.0","93.0","93.0","93.0","93.0","93.0","93.0","93.0","93.0","93.0","93.0","93.0","93.0","93.0","93.0","93.0","93.0","93.0","93.0","93.0","93.0","93.0","93.0","93.0","93.0","93.0","93.0","93.0","93.0","93.0","93.0","93.0","93.0","93.0","93.0","93.0","93.0","93.0","93.0","93.0","93.0","93.0","93.0","93.0","93.0","93.0","93.0","93.0","93.0","93.0","93.0","93.0","93.0","93.0","93.0","93.0","93.0","93.0","93.0","93.0","93.0","93.0","93.0","93.0","93.0","93.0","93.0","93.0","93.0","93.0","93.0","93.0","93.0","93.0","93.0","93.0","93.0","93.0","93.0","93.0","93.0","93.0","93.0","93.0","93.0","93.0","93.0","93.0","93.0","93.0","93.0","93.0","93.0","93.0","93.0","93.0","93.0","93.0","93.0","93.0","93.0","93.0","93.0","93.0","93.0","93.0","93.0","93.0","93.0","93.0","93.0","93.0","93.0","93.0","93.0","93.0","93.0","93.0","93.0","93.0","93.0"],"espresso_temperature_basket":["93.0","81.09","81.28","81.25","81.39","81.71","82.31","83.06","83.84","84.65","85.43","86.23","86.98","87.67","88.37","89.05","89.63","90.12","90.62","91.09","91.46","91.76","92.04","92.26","92.43","92.61","92.75","92.82","92.84","92.92","92.97","92.95","92.94","93.0","93.04","93.06","93.07","93.09","93.15","93.15","93.17","93.14","93.11","93.16","93.15","93.09","93.06","93.01","93.02","92.99","92.94","92.89","92.86","92.79","92.79","92.82","92.75","92.71","92.72","92.68","92.68","92.59","92.62","92.6","92.58","92.47","92.57","92.56","92.57","92.53","92.5","92.49","92.45","92.46","92.48","92.48","92.39","92.33","92.31","92.35","92.32","92.31","92.28","92.31","92.3","92.25","92.25","92.26","92.23","92.15","92.17","92.11","92.17","92.07","92.06","92.03","92.07","92.04","92.03","91.98","91.98","92.01","91.98","92.03","91.92","92.02","91.99","91.92","91.95","91.88","91.88","91.89","91.84","91.85","91.88","91.86","91.82","91.77","91.78","91.81","91.75","91.76","91.76","91.73","91.63","91.71","91.79","91.75","91.75","91.75","91.69","91.67","91.68","91.69","91.69","91.69"]},"updated_at":1776638841,"user_name":"MrCookies","tags":[],"profile_url":"https://visualizer.coffee/api/shots/34331f3e-9a64-4590-8d74-0bd78262b2d7/profile"}